{
  "type": "LSTM",
  "options": {
    "inputSize": 31,
    "inputRange": 31,
    "hiddenLayers": [
      20,
      20
    ],
    "outputSize": 31,
    "decayRate": 0.999,
    "smoothEps": 1e-8,
    "regc": 0.000001,
    "clipval": 5,
    "maxPredictionLength": 100,
    "dataFormatter": {
      "values": [
        "my unit test failed",
        "software",
        "tried the program, but it was buggy",
        "i need a new power supply",
        "hardware",
        "the drive has a 2TB capacity",
        "unit-tests",
        "program",
        "power supply",
        "drive",
        "it needs more memory",
        "code",
        "i found some bugs in the code",
        "i swapped the memory",
        "i tested the code",
        "i love computers",
        "programming",
        "i broke my pc",
        "computer",
        "buy me a laptop",
        "i love to play games"
      ],
      "indexTable": {
        "2": 22,
        "m": 0,
        "y": 1,
        " ": 2,
        "u": 3,
        "n": 4,
        "i": 5,
        "t": 6,
        "e": 7,
        "s": 8,
        "f": 9,
        "a": 10,
        "l": 11,
        "d": 12,
        "o": 13,
        "w": 14,
        "r": 15,
        "h": 16,
        "p": 17,
        "g": 18,
        ",": 19,
        "b": 20,
        "v": 21,
        "T": 23,
        "B": 24,
        "c": 25,
        "-": 26,
        "k": 27,
        "stop-input": 28,
        "start-output": 29,
        "unrecognized": 30
      },
      "characterTable": {
        "0": "m",
        "1": "y",
        "2": " ",
        "3": "u",
        "4": "n",
        "5": "i",
        "6": "t",
        "7": "e",
        "8": "s",
        "9": "f",
        "10": "a",
        "11": "l",
        "12": "d",
        "13": "o",
        "14": "w",
        "15": "r",
        "16": "h",
        "17": "p",
        "18": "g",
        "19": ",",
        "20": "b",
        "21": "v",
        "22": "2",
        "23": "T",
        "24": "B",
        "25": "c",
        "26": "-",
        "27": "k",
        "28": null,
        "29": null,
        "30": null
      },
      "characters": [
        "m",
        "y",
        " ",
        "u",
        "n",
        "i",
        "t",
        "e",
        "s",
        "f",
        "a",
        "l",
        "d",
        "o",
        "w",
        "r",
        "h",
        "p",
        "g",
        ",",
        "b",
        "v",
        "2",
        "T",
        "B",
        "c",
        "-",
        "k",
        "stop-input",
        "start-output",
        "unrecognized"
      ],
      "specialIndexes": [
        28,
        29,
        30
      ]
    }
  },
  "input": {
    "rows": 32,
    "columns": 31,
    "weights": {
      "0": -0.12383445352315903,
      "1": -0.3297257423400879,
      "2": 1.8856183290481567,
      "3": -1.397141933441162,
      "4": -0.17525412142276764,
      "5": 1.1298009157180786,
      "6": -0.14397652447223663,
      "7": -0.6953592300415039,
      "8": -0.5906836986541748,
      "9": -1.5871816873550415,
      "10": -0.6617763042449951,
      "11": 2.8718364238739014,
      "12": -2.298672676086426,
      "13": 0.4461241662502289,
      "14": 2.216416835784912,
      "15": 1.5293601751327515,
      "16": -2.7040867805480957,
      "17": -1.8002299070358276,
      "18": -1.598146677017212,
      "19": 2.1958396434783936,
      "20": -1.083221435546875,
      "21": -0.39623257517814636,
      "22": -0.046254854649305344,
      "23": -0.48972177505493164,
      "24": -0.05044937506318092,
      "25": -1.3050013780593872,
      "26": 2.3810408115386963,
      "27": 1.7924137115478516,
      "28": -0.1272842437028885,
      "29": 0.2861620783805847,
      "30": -0.8520955443382263,
      "31": 1.9263020753860474,
      "32": 2.337425708770752,
      "33": -3.792806386947632,
      "34": 1.4358750581741333,
      "35": -0.9856359958648682,
      "36": 2.517078399658203,
      "37": 2.1995208263397217,
      "38": 1.1956276893615723,
      "39": -0.10988817363977432,
      "40": -1.075883388519287,
      "41": 2.4721193313598633,
      "42": -2.7827234268188477,
      "43": 5.720504283905029,
      "44": 0.14110849797725677,
      "45": -2.533531904220581,
      "46": 1.9086055755615234,
      "47": 0.2765065133571625,
      "48": -0.7120211720466614,
      "49": -0.1532057374715805,
      "50": 1.8212183713912964,
      "51": 0.06279442459344864,
      "52": 1.7285925149917603,
      "53": -2.604912519454956,
      "54": -1.368782639503479,
      "55": 2.3073923587799072,
      "56": 0.6243878602981567,
      "57": -3.3329367637634277,
      "58": -0.22477948665618896,
      "59": 3.23252534866333,
      "60": -2.0831050872802734,
      "61": 2.9198508262634277,
      "62": -3.644545555114746,
      "63": -3.0509204864501953,
      "64": 2.27209734916687,
      "65": -3.4141106605529785,
      "66": -2.3557307720184326,
      "67": 2.1903738975524902,
      "68": -2.1255667209625244,
      "69": 0.5013935565948486,
      "70": -1.454380750656128,
      "71": 0.4724883735179901,
      "72": 3.0427839756011963,
      "73": 0.4756332039833069,
      "74": -2.602818727493286,
      "75": -3.074230909347534,
      "76": -2.720266342163086,
      "77": 0.8620085120201111,
      "78": 0.6496188640594482,
      "79": -0.9344239830970764,
      "80": 0.5454248785972595,
      "81": 1.9348381757736206,
      "82": -4.169559001922607,
      "83": -1.2796028852462769,
      "84": 2.7258589267730713,
      "85": 0.8576570153236389,
      "86": 2.8209147453308105,
      "87": 0.24944190680980682,
      "88": 1.6833809614181519,
      "89": -0.7781333327293396,
      "90": -1.2306630611419678,
      "91": 3.6785335540771484,
      "92": 0.5994887351989746,
      "93": 0.9673959612846375,
      "94": 3.9225337505340576,
      "95": 1.5783882141113281,
      "96": 4.441162109375,
      "97": 0.5366482138633728,
      "98": -3.2570481300354004,
      "99": -1.6896390914916992,
      "100": 4.990272045135498,
      "101": -0.9347506165504456,
      "102": -0.9980583190917969,
      "103": 0.3163604140281677,
      "104": 2.977254629135132,
      "105": 1.4565496444702148,
      "106": 2.147890567779541,
      "107": -1.328145146369934,
      "108": 0.701434850692749,
      "109": 2.5437123775482178,
      "110": -2.875366449356079,
      "111": 3.8879828453063965,
      "112": 3.2054684162139893,
      "113": 1.7988728284835815,
      "114": -4.381827354431152,
      "115": 1.1288275718688965,
      "116": -1.5897578001022339,
      "117": -0.6775124669075012,
      "118": -0.16729216277599335,
      "119": 2.1042404174804688,
      "120": -1.403244972229004,
      "121": -0.6365785002708435,
      "122": 2.851388454437256,
      "123": -0.5909794569015503,
      "124": -0.6005885601043701,
      "125": -3.199856758117676,
      "126": 0.41495436429977417,
      "127": 0.9763749241828918,
      "128": -5.07134485244751,
      "129": 4.635579586029053,
      "130": 0.09027626365423203,
      "131": -0.8085208535194397,
      "132": -0.7684680819511414,
      "133": 2.1440541744232178,
      "134": 3.8969898223876953,
      "135": 0.08514979481697083,
      "136": -1.7600589990615845,
      "137": -2.989061117172241,
      "138": -2.3608062267303467,
      "139": 2.8301656246185303,
      "140": -0.7807941436767578,
      "141": 0.6926596164703369,
      "142": -1.0847818851470947,
      "143": -2.8145875930786133,
      "144": -1.0381379127502441,
      "145": 3.8804705142974854,
      "146": 0.017650986090302467,
      "147": 0.6572840213775635,
      "148": 0.1345265507698059,
      "149": -0.08424650877714157,
      "150": -2.405430793762207,
      "151": 1.1044148206710815,
      "152": 4.73053503036499,
      "153": -4.161075592041016,
      "154": 4.671323776245117,
      "155": -0.7012836337089539,
      "156": 1.1343272924423218,
      "157": 2.2525439262390137,
      "158": 2.316861152648926,
      "159": -1.499291181564331,
      "160": 0.20972378551959991,
      "161": 0.9847792387008667,
      "162": -1.4174511432647705,
      "163": -0.4768408238887787,
      "164": 1.197462797164917,
      "165": -3.0580246448516846,
      "166": 1.1180697679519653,
      "167": -2.6808173656463623,
      "168": -5.017659664154053,
      "169": -2.1497268676757812,
      "170": -5.557015895843506,
      "171": 5.236112117767334,
      "172": -1.540093183517456,
      "173": 5.862391948699951,
      "174": 2.475311279296875,
      "175": -1.5316362380981445,
      "176": -0.045068636536598206,
      "177": 2.659968137741089,
      "178": 0.7231435775756836,
      "179": -0.21910493075847626,
      "180": 8.97510814666748,
      "181": 0.8364427089691162,
      "182": 4.965417861938477,
      "183": 0.30098843574523926,
      "184": 3.370666980743408,
      "185": -1.8728946447372437,
      "186": -0.450256884098053,
      "187": -1.9067529439926147,
      "188": 1.6591085195541382,
      "189": -0.34174150228500366,
      "190": 0.49444225430488586,
      "191": 0.17503970861434937,
      "192": -0.8104215264320374,
      "193": -1.5444899797439575,
      "194": -0.058739930391311646,
      "195": 2.4813685417175293,
      "196": 0.601555347442627,
      "197": -2.563343048095703,
      "198": -0.12933111190795898,
      "199": -1.4055359363555908,
      "200": -1.6475765705108643,
      "201": -2.0384929180145264,
      "202": 1.0781900882720947,
      "203": 3.174391269683838,
      "204": 2.0555408000946045,
      "205": -2.91983962059021,
      "206": 0.9033645391464233,
      "207": -0.5532095432281494,
      "208": 1.311259388923645,
      "209": 0.9114707112312317,
      "210": 1.1070234775543213,
      "211": 1.6302253007888794,
      "212": 2.2223973274230957,
      "213": 0.984006941318512,
      "214": -2.1694602966308594,
      "215": 1.599987506866455,
      "216": 0.029308730736374855,
      "217": 0.7601870894432068,
      "218": 0.9292508363723755,
      "219": 3.077739715576172,
      "220": -0.08208120614290237,
      "221": 1.6528007984161377,
      "222": -0.18890945613384247,
      "223": -0.1735384166240692,
      "224": -2.0739729404449463,
      "225": 1.389518141746521,
      "226": 1.5350029468536377,
      "227": -1.874385118484497,
      "228": 1.7818759679794312,
      "229": -0.6095230579376221,
      "230": -1.9198076725006104,
      "231": -0.4084168076515198,
      "232": -1.9545413255691528,
      "233": 1.3008553981781006,
      "234": -1.860355019569397,
      "235": 1.5067691802978516,
      "236": 0.3733113706111908,
      "237": 0.8347102403640747,
      "238": -0.04764317721128464,
      "239": 1.5882656574249268,
      "240": -0.8834096193313599,
      "241": 0.6758517026901245,
      "242": 1.7704639434814453,
      "243": 3.4187560081481934,
      "244": 0.05783865228295326,
      "245": 0.5449623465538025,
      "246": 2.009894371032715,
      "247": -1.775659203529358,
      "248": -1.5171388387680054,
      "249": -0.8687750697135925,
      "250": 1.8864346742630005,
      "251": -0.2148071825504303,
      "252": -1.0371404886245728,
      "253": -1.2389177083969116,
      "254": 0.5246008038520813,
      "255": -0.4045591950416565,
      "256": 0.6255723237991333,
      "257": 1.9083943367004395,
      "258": 0.6296353936195374,
      "259": 1.1513792276382446,
      "260": 1.1980103254318237,
      "261": 0.3734637200832367,
      "262": -0.5839256644248962,
      "263": 1.2831956148147583,
      "264": 0.35026660561561584,
      "265": 1.3556689023971558,
      "266": 1.0841573476791382,
      "267": -0.7479450702667236,
      "268": 1.2658053636550903,
      "269": -0.2963182032108307,
      "270": -0.4142930209636688,
      "271": -3.258033275604248,
      "272": -1.121873140335083,
      "273": -0.8803812265396118,
      "274": 0.8166605830192566,
      "275": 0.31637099385261536,
      "276": 0.7673029899597168,
      "277": 0.9806801676750183,
      "278": -0.8644315004348755,
      "279": 0.8655997514724731,
      "280": 1.0046197175979614,
      "281": -1.8226879835128784,
      "282": 0.45707517862319946,
      "283": -0.37597814202308655,
      "284": -0.3850916624069214,
      "285": -2.053844928741455,
      "286": 0.8858843445777893,
      "287": 1.3884118795394897,
      "288": 1.1477739810943604,
      "289": -2.4676077365875244,
      "290": -0.2913661003112793,
      "291": -0.29024365544319153,
      "292": 0.21069280803203583,
      "293": 0.8561444878578186,
      "294": -1.409684419631958,
      "295": 0.9418675303459167,
      "296": -0.03638237342238426,
      "297": 0.34948769211769104,
      "298": 0.5616847276687622,
      "299": 0.2837679982185364,
      "300": 0.5365369319915771,
      "301": 2.9090452194213867,
      "302": 0.9925866723060608,
      "303": -1.0052746534347534,
      "304": 1.0861735343933105,
      "305": -1.3487178087234497,
      "306": -0.8771572709083557,
      "307": -1.229113221168518,
      "308": 0.30361175537109375,
      "309": -1.002221703529358,
      "310": -0.924752950668335,
      "311": 2.0507283210754395,
      "312": -1.1665409803390503,
      "313": -1.1752725839614868,
      "314": 0.33538585901260376,
      "315": -1.915541648864746,
      "316": 2.72780179977417,
      "317": 1.339895248413086,
      "318": -4.193761348724365,
      "319": 1.5034472942352295,
      "320": 3.255934953689575,
      "321": -2.022122859954834,
      "322": -2.067582607269287,
      "323": -1.3936764001846313,
      "324": 1.84297513961792,
      "325": 0.5122956037521362,
      "326": -0.8741889595985413,
      "327": 4.730834007263184,
      "328": 0.7981733083724976,
      "329": -2.234254837036133,
      "330": -2.1491804122924805,
      "331": -1.034719467163086,
      "332": -0.23012284934520721,
      "333": 0.07622917741537094,
      "334": 2.8935344219207764,
      "335": -1.1022636890411377,
      "336": 0.7873659133911133,
      "337": -1.8585118055343628,
      "338": 2.7877347469329834,
      "339": -1.1492360830307007,
      "340": 3.6529104709625244,
      "341": 1.3554104566574097,
      "342": 0.7135695219039917,
      "343": -0.7583974599838257,
      "344": -0.2861693203449249,
      "345": 0.5792756676673889,
      "346": 0.07251754403114319,
      "347": 0.13653741776943207,
      "348": 0.10801853984594345,
      "349": 0.5071547031402588,
      "350": 0.6754222512245178,
      "351": -0.09464570134878159,
      "352": -1.7259302139282227,
      "353": 1.1482588052749634,
      "354": -0.611498236656189,
      "355": 0.3992876708507538,
      "356": -1.557912826538086,
      "357": 0.32351285219192505,
      "358": -0.19358474016189575,
      "359": 0.4713154733181,
      "360": 0.6699205040931702,
      "361": 0.712052583694458,
      "362": -0.5510114431381226,
      "363": -0.19408409297466278,
      "364": 0.4840843379497528,
      "365": 0.7626534104347229,
      "366": 0.9160583019256592,
      "367": -0.01603187434375286,
      "368": -1.1514952182769775,
      "369": 0.2676539123058319,
      "370": -0.04702509194612503,
      "371": -0.06184960529208183,
      "372": 2.017942428588867,
      "373": 3.3323984146118164,
      "374": 0.6134979128837585,
      "375": 4.333003520965576,
      "376": -0.7061193585395813,
      "377": 0.7585143446922302,
      "378": -0.6322493553161621,
      "379": 2.7578885555267334,
      "380": 2.6164698600769043,
      "381": 0.1574033945798874,
      "382": -1.3839751482009888,
      "383": 3.667781352996826,
      "384": 3.0229525566101074,
      "385": 1.0318862199783325,
      "386": 2.2078757286071777,
      "387": -3.510955572128296,
      "388": 3.159543752670288,
      "389": -5.293883323669434,
      "390": 3.2557992935180664,
      "391": 1.9190700054168701,
      "392": 4.316223621368408,
      "393": -1.7422693967819214,
      "394": 0.9310975074768066,
      "395": -7.174156188964844,
      "396": -4.170027256011963,
      "397": 2.041543483734131,
      "398": -1.2180829048156738,
      "399": 0.8686202764511108,
      "400": -0.7793743014335632,
      "401": 1.9952266216278076,
      "402": -2.5650665760040283,
      "403": 1.8088947534561157,
      "404": 2.488577365875244,
      "405": -1.4542229175567627,
      "406": 2.723465919494629,
      "407": 1.677322506904602,
      "408": -0.989234983921051,
      "409": -0.9730926156044006,
      "410": 0.2802290916442871,
      "411": 0.9517605900764465,
      "412": 1.6550594568252563,
      "413": -0.010069020092487335,
      "414": -1.3436036109924316,
      "415": 0.9305330514907837,
      "416": -2.1335878372192383,
      "417": -0.32106274366378784,
      "418": -5.140525817871094,
      "419": 2.181981086730957,
      "420": 0.10923498868942261,
      "421": 4.381909370422363,
      "422": 2.796468734741211,
      "423": 2.191704034805298,
      "424": -0.868428647518158,
      "425": -1.5666216611862183,
      "426": 1.508901834487915,
      "427": 1.9045213460922241,
      "428": 4.719160556793213,
      "429": -2.9420676231384277,
      "430": 0.6312087774276733,
      "431": 1.6702839136123657,
      "432": 2.7278003692626953,
      "433": -1.6275355815887451,
      "434": 1.6571850776672363,
      "435": 0.5727548599243164,
      "436": 0.2643342912197113,
      "437": 1.4551652669906616,
      "438": 0.972005307674408,
      "439": 2.0047543048858643,
      "440": -0.0629190132021904,
      "441": -0.24977195262908936,
      "442": 0.012554065324366093,
      "443": -0.48259466886520386,
      "444": 0.8090702891349792,
      "445": 0.32601502537727356,
      "446": 0.042253460735082626,
      "447": -1.810459017753601,
      "448": -0.8092297911643982,
      "449": -1.717734694480896,
      "450": 0.48862534761428833,
      "451": -1.850592851638794,
      "452": 0.6648790240287781,
      "453": 5.347177982330322,
      "454": -1.354828953742981,
      "455": 1.1705390214920044,
      "456": 1.442194938659668,
      "457": 0.8385038375854492,
      "458": 0.8899003267288208,
      "459": 0.46391114592552185,
      "460": -0.62457674741745,
      "461": 0.8127065300941467,
      "462": -1.6134426593780518,
      "463": -0.18708264827728271,
      "464": 1.2112858295440674,
      "465": 1.577121615409851,
      "466": -0.18680866062641144,
      "467": -1.1791479587554932,
      "468": 0.8681995868682861,
      "469": 0.9299170970916748,
      "470": -0.552457332611084,
      "471": -1.2194364070892334,
      "472": -0.5436275005340576,
      "473": 1.323275089263916,
      "474": 0.33332276344299316,
      "475": -1.9909745454788208,
      "476": -2.862855911254883,
      "477": 0.13121870160102844,
      "478": -0.6546953320503235,
      "479": -0.5905299782752991,
      "480": -0.09356577694416046,
      "481": 1.024167537689209,
      "482": -0.16898134350776672,
      "483": 0.47223368287086487,
      "484": -1.5200402736663818,
      "485": 0.08160394430160522,
      "486": 0.12727545201778412,
      "487": 1.6554008722305298,
      "488": 1.2411224842071533,
      "489": 0.0634002536535263,
      "490": 0.8091543912887573,
      "491": -1.4690653085708618,
      "492": 0.03728261962532997,
      "493": -0.5428054332733154,
      "494": -0.9982782006263733,
      "495": -0.6839796304702759,
      "496": -2.0697824954986572,
      "497": -1.1862305402755737,
      "498": 0.2891775667667389,
      "499": -3.179076910018921,
      "500": -1.114463210105896,
      "501": -0.2338365614414215,
      "502": 0.5889958143234253,
      "503": -2.147108554840088,
      "504": 0.4554860591888428,
      "505": -0.39236605167388916,
      "506": 0.7963089942932129,
      "507": -0.3572985529899597,
      "508": -1.6199404001235962,
      "509": -0.6965206861495972,
      "510": -0.13020101189613342,
      "511": 1.7662469148635864,
      "512": -1.7787859439849854,
      "513": 0.47794294357299805,
      "514": -1.7062876224517822,
      "515": -1.2781387567520142,
      "516": -3.7110908031463623,
      "517": -0.0940169245004654,
      "518": -1.3491523265838623,
      "519": 1.192084550857544,
      "520": 1.5505527257919312,
      "521": 1.2349809408187866,
      "522": 1.4235599040985107,
      "523": 0.42890116572380066,
      "524": -0.30625274777412415,
      "525": 1.9324913024902344,
      "526": -0.30696365237236023,
      "527": -1.6426256895065308,
      "528": -0.7287626266479492,
      "529": 1.4235084056854248,
      "530": 0.19215168058872223,
      "531": 1.3749284744262695,
      "532": 0.3699111342430115,
      "533": 0.5398150086402893,
      "534": -0.23241746425628662,
      "535": 1.0198075771331787,
      "536": 1.6835341453552246,
      "537": -1.7490888833999634,
      "538": -0.09599828720092773,
      "539": -2.433340072631836,
      "540": -2.0032753944396973,
      "541": -0.7457359433174133,
      "542": -1.9319924116134644,
      "543": 2.2851710319519043,
      "544": 1.4758421182632446,
      "545": 3.033940076828003,
      "546": 2.4874203205108643,
      "547": -0.07556411623954773,
      "548": 2.0898187160491943,
      "549": 0.557945191860199,
      "550": -0.312938392162323,
      "551": 2.658750534057617,
      "552": 2.2111291885375977,
      "553": 1.2505055665969849,
      "554": 0.49103397130966187,
      "555": 1.9319401979446411,
      "556": 2.3273918628692627,
      "557": 1.0243927240371704,
      "558": -1.034493327140808,
      "559": -0.20356157422065735,
      "560": -0.5792447328567505,
      "561": -0.9050111770629883,
      "562": -3.848609447479248,
      "563": 0.072944775223732,
      "564": 0.7774366736412048,
      "565": -4.538018703460693,
      "566": 0.8372268080711365,
      "567": -0.5828057527542114,
      "568": -0.5276608467102051,
      "569": 0.9160996079444885,
      "570": -1.305828332901001,
      "571": -0.33627820014953613,
      "572": 4.557003498077393,
      "573": 2.044393301010132,
      "574": 2.07525897026062,
      "575": -0.8781936764717102,
      "576": -1.5860134363174438,
      "577": -1.7212144136428833,
      "578": -0.1549970507621765,
      "579": -0.02742134779691696,
      "580": -0.984334409236908,
      "581": -2.345773458480835,
      "582": 0.48141658306121826,
      "583": 0.24329958856105804,
      "584": 0.5947948694229126,
      "585": 3.300800085067749,
      "586": -2.6854498386383057,
      "587": 4.149663925170898,
      "588": -2.6966488361358643,
      "589": 0.11020886152982712,
      "590": -1.0920602083206177,
      "591": -1.5544627904891968,
      "592": -4.16272497177124,
      "593": 5.459655284881592,
      "594": -3.784621000289917,
      "595": -0.5117703676223755,
      "596": -5.583736419677734,
      "597": 0.3669632077217102,
      "598": 4.909087181091309,
      "599": -4.032501220703125,
      "600": -4.173830032348633,
      "601": -1.4542765617370605,
      "602": -5.470378398895264,
      "603": -1.8428637981414795,
      "604": -2.4658877849578857,
      "605": 2.050633192062378,
      "606": 5.318784236907959,
      "607": -0.030672721564769745,
      "608": -2.1510486602783203,
      "609": -5.357100009918213,
      "610": 0.2591595947742462,
      "611": 5.647088527679443,
      "612": 4.66429328918457,
      "613": 0.17408452928066254,
      "614": 4.462855339050293,
      "615": 0.3004671633243561,
      "616": 3.862199068069458,
      "617": -2.8269128799438477,
      "618": -0.30981796979904175,
      "619": -5.010538578033447,
      "620": 8.371192932128906,
      "621": -2.7568414211273193,
      "622": -6.497010707855225,
      "623": 1.331335425376892,
      "624": 6.212733268737793,
      "625": 2.989790916442871,
      "626": -16.148244857788086,
      "627": -6.871517181396484,
      "628": 7.851329803466797,
      "629": 8.125319480895996,
      "630": -7.618485927581787,
      "631": -4.087473392486572,
      "632": 2.0734353065490723,
      "633": -5.048647403717041,
      "634": -11.06224536895752,
      "635": -6.166224002838135,
      "636": 9.98873519897461,
      "637": -0.6530113220214844,
      "638": 1.671563982963562,
      "639": -3.7266602516174316,
      "640": -1.1254717111587524,
      "641": -4.043480396270752,
      "642": 1.9673641920089722,
      "643": 4.110637187957764,
      "644": -4.3483781814575195,
      "645": 23.12831687927246,
      "646": 2.663917064666748,
      "647": 4.881131649017334,
      "648": -12.376322746276855,
      "649": 2.396122455596924,
      "650": -1.7017093896865845,
      "651": 0.7042564749717712,
      "652": 3.111579418182373,
      "653": -0.0837198942899704,
      "654": 6.331873893737793,
      "655": 0.24209292232990265,
      "656": -1.3523201942443848,
      "657": -4.168959140777588,
      "658": 2.1734824180603027,
      "659": -3.3787667751312256,
      "660": -0.3377157151699066,
      "661": -4.442352771759033,
      "662": 2.3826491832733154,
      "663": 0.6205394268035889,
      "664": 0.9818481802940369,
      "665": -3.2736780643463135,
      "666": 0.4310484826564789,
      "667": -1.0485183000564575,
      "668": -0.649195671081543,
      "669": 0.7202132344245911,
      "670": -0.15029221773147583,
      "671": 1.6646422147750854,
      "672": -3.2073259353637695,
      "673": 6.474069595336914,
      "674": 3.00290846824646,
      "675": -1.065982460975647,
      "676": -7.8586883544921875,
      "677": 3.2852184772491455,
      "678": 2.373202323913574,
      "679": -1.8176546096801758,
      "680": -2.6426825523376465,
      "681": -3.8601696491241455,
      "682": -2.8291244506835938,
      "683": -2.0656967163085938,
      "684": -0.6814646124839783,
      "685": -2.837339401245117,
      "686": -4.184054374694824,
      "687": -0.735750675201416,
      "688": 6.807923316955566,
      "689": 3.0577659606933594,
      "690": -6.9539666175842285,
      "691": -0.47556519508361816,
      "692": 5.370325565338135,
      "693": -0.5196823477745056,
      "694": 1.010155200958252,
      "695": 1.2245138883590698,
      "696": 0.2555418312549591,
      "697": 2.94673490524292,
      "698": -0.8218391537666321,
      "699": 1.9796055555343628,
      "700": -0.783589243888855,
      "701": 0.6738079190254211,
      "702": -1.829355001449585,
      "703": 2.5625667572021484,
      "704": 1.883437156677246,
      "705": 0.2436259686946869,
      "706": -2.1619324684143066,
      "707": -8.399543762207031,
      "708": -3.497252941131592,
      "709": -2.421982765197754,
      "710": 3.049530506134033,
      "711": -1.9672659635543823,
      "712": -0.03104543127119541,
      "713": -2.8308701515197754,
      "714": -7.783931732177734,
      "715": 5.310109615325928,
      "716": -9.26225471496582,
      "717": -10.795442581176758,
      "718": 2.8489508628845215,
      "719": -1.7091045379638672,
      "720": -3.6588287353515625,
      "721": 4.134847164154053,
      "722": 14.33635139465332,
      "723": -2.118587017059326,
      "724": 1.3527560234069824,
      "725": -11.450878143310547,
      "726": -0.12727463245391846,
      "727": -5.981639862060547,
      "728": -1.3828343152999878,
      "729": -4.692757606506348,
      "730": 6.212228298187256,
      "731": -4.58754301071167,
      "732": -3.280299663543701,
      "733": -3.9497973918914795,
      "734": -12.137246131896973,
      "735": 0.7522981762886047,
      "736": 5.597406387329102,
      "737": -3.604349136352539,
      "738": -0.7384940981864929,
      "739": 11.191948890686035,
      "740": -1.1939024925231934,
      "741": -4.711703300476074,
      "742": 10.69559097290039,
      "743": 1.3134509325027466,
      "744": 7.116029262542725,
      "745": 9.60588264465332,
      "746": -4.408165454864502,
      "747": 4.776054382324219,
      "748": -0.8843358159065247,
      "749": -2.6301281452178955,
      "750": -6.908468723297119,
      "751": 7.5158467292785645,
      "752": 8.225072860717773,
      "753": 1.250348687171936,
      "754": -12.279494285583496,
      "755": 1.0529284477233887,
      "756": 11.031716346740723,
      "757": 1.5918692350387573,
      "758": -4.929867267608643,
      "759": 3.160141706466675,
      "760": 6.051146507263184,
      "761": -7.055144309997559,
      "762": 7.479706287384033,
      "763": 9.470096588134766,
      "764": 1.1823410987854004,
      "765": -5.49832820892334,
      "766": 10.97631549835205,
      "767": -1.6157325506210327,
      "768": -8.64822769165039,
      "769": 7.928160190582275,
      "770": 1.3636903762817383,
      "771": -4.78887939453125,
      "772": -12.788976669311523,
      "773": 6.853819847106934,
      "774": -10.44000244140625,
      "775": -2.801076650619507,
      "776": 0.41928184032440186,
      "777": 4.179881572723389,
      "778": 5.890257835388184,
      "779": -5.29829216003418,
      "780": 1.1289832592010498,
      "781": -15.547051429748535,
      "782": -3.6877944469451904,
      "783": 11.160126686096191,
      "784": 12.331918716430664,
      "785": -4.647387504577637,
      "786": 2.51062273979187,
      "787": -11.035408973693848,
      "788": -9.14369010925293,
      "789": -17.621013641357422,
      "790": 4.228794097900391,
      "791": 3.1993558406829834,
      "792": 2.019641399383545,
      "793": 6.7487568855285645,
      "794": -2.281566858291626,
      "795": -3.2630202770233154,
      "796": -2.899914026260376,
      "797": -0.5289224982261658,
      "798": -0.583299458026886,
      "799": -0.07815752923488617,
      "800": 5.8255133628845215,
      "801": 5.809841156005859,
      "802": 12.405240058898926,
      "803": 4.396875858306885,
      "804": 6.5695343017578125,
      "805": -11.30422306060791,
      "806": 0.5433628559112549,
      "807": 3.3491904735565186,
      "808": -0.14604783058166504,
      "809": 3.593533992767334,
      "810": -1.6511746644973755,
      "811": 1.3874173164367676,
      "812": -1.2334649562835693,
      "813": 3.6271376609802246,
      "814": 2.488670587539673,
      "815": 2.0366134643554688,
      "816": -1.9461305141448975,
      "817": 2.4271562099456787,
      "818": 0.27031180262565613,
      "819": 1.2184842824935913,
      "820": 0.08817212283611298,
      "821": -1.8237885236740112,
      "822": 4.8441243171691895,
      "823": -4.1430559158325195,
      "824": 5.727711200714111,
      "825": 1.6546911001205444,
      "826": 7.199309349060059,
      "827": 0.06085112690925598,
      "828": 2.917924642562866,
      "829": -3.725515127182007,
      "830": -5.2059197425842285,
      "831": 0.17254382371902466,
      "832": 0.8639422655105591,
      "833": 1.3090007305145264,
      "834": -0.042201779782772064,
      "835": -1.8568170070648193,
      "836": 0.5282158851623535,
      "837": -3.3587663173675537,
      "838": 8.933653831481934,
      "839": 1.6104563474655151,
      "840": 2.4151618480682373,
      "841": 10.083094596862793,
      "842": -2.5275747776031494,
      "843": -15.669319152832031,
      "844": 7.0515594482421875,
      "845": 10.299976348876953,
      "846": 1.4530867338180542,
      "847": -4.872470855712891,
      "848": -3.0465970039367676,
      "849": -8.354105949401855,
      "850": -12.858247756958008,
      "851": -13.162042617797852,
      "852": -6.12409782409668,
      "853": 0.3855001926422119,
      "854": -6.270282745361328,
      "855": 0.3374554216861725,
      "856": 3.750380039215088,
      "857": -7.169608116149902,
      "858": 3.6445529460906982,
      "859": 15.669305801391602,
      "860": 4.164608001708984,
      "861": 5.497612476348877,
      "862": 9.99424934387207,
      "863": -0.17428377270698547,
      "864": -2.1043879985809326,
      "865": 0.8918288946151733,
      "866": 5.9599432945251465,
      "867": -5.681002616882324,
      "868": -3.5115249156951904,
      "869": -7.524332046508789,
      "870": 1.1462763547897339,
      "871": -5.6169891357421875,
      "872": 8.431384086608887,
      "873": 5.3698906898498535,
      "874": 2.1708316802978516,
      "875": -4.270239353179932,
      "876": -6.037809371948242,
      "877": 2.1305480003356934,
      "878": -1.7037829160690308,
      "879": -5.341031551361084,
      "880": -4.548766613006592,
      "881": -1.794069528579712,
      "882": 5.1590142250061035,
      "883": -5.175962448120117,
      "884": -8.101944923400879,
      "885": 6.797431468963623,
      "886": -0.6041672825813293,
      "887": 2.1579532623291016,
      "888": -2.619950294494629,
      "889": 3.7953364849090576,
      "890": -10.747180938720703,
      "891": 12.764836311340332,
      "892": 23.398895263671875,
      "893": 1.8484723567962646,
      "894": -8.278305053710938,
      "895": 1.7432305812835693,
      "896": 8.49378776550293,
      "897": -2.2785592079162598,
      "898": -3.9779717922210693,
      "899": 0.24601449072360992,
      "900": 2.7290496826171875,
      "901": -1.955057144165039,
      "902": 1.3872110843658447,
      "903": 1.3262211084365845,
      "904": -3.6682238578796387,
      "905": 1.7514454126358032,
      "906": 1.0806843042373657,
      "907": -1.7406697273254395,
      "908": -1.4489434957504272,
      "909": 0.8596014380455017,
      "910": -0.5989447832107544,
      "911": -2.6603145599365234,
      "912": -0.5422186255455017,
      "913": 2.684622287750244,
      "914": -0.8206400871276855,
      "915": 2.7175512313842773,
      "916": -0.3065173029899597,
      "917": 1.1808890104293823,
      "918": -2.293118953704834,
      "919": 0.544995129108429,
      "920": -1.931534767150879,
      "921": -1.83088219165802,
      "922": 1.4924991130828857,
      "923": 0.5368375182151794,
      "924": 0.09912420809268951,
      "925": 0.45559850335121155,
      "926": -0.7511557936668396,
      "927": -0.7920594811439514,
      "928": -0.7829964756965637,
      "929": -0.22150301933288574,
      "930": 0.07961692661046982,
      "931": -0.2783174216747284,
      "932": -0.5710243582725525,
      "933": -0.4739376902580261,
      "934": 0.9264541268348694,
      "935": -0.3044847846031189,
      "936": 2.203746795654297,
      "937": 1.6199610233306885,
      "938": -1.8452351093292236,
      "939": -1.2996965646743774,
      "940": 1.5274935960769653,
      "941": -1.256928563117981,
      "942": 0.24871937930583954,
      "943": 0.8302141427993774,
      "944": 0.7429588437080383,
      "945": -1.345793604850769,
      "946": -1.5152524709701538,
      "947": -0.327544629573822,
      "948": 0.531540036201477,
      "949": 0.9580451846122742,
      "950": 1.1079778671264648,
      "951": -0.27540597319602966,
      "952": -1.0399707555770874,
      "953": 0.8487694263458252,
      "954": 1.5273888111114502,
      "955": -0.9163302183151245,
      "956": -0.40843135118484497,
      "957": -2.9756507873535156,
      "958": 0.7134150266647339,
      "959": 0.3097291588783264,
      "960": 1.0493921041488647,
      "961": 0.00016603022231720388,
      "962": -0.03700800985097885,
      "963": -0.057450614869594574,
      "964": 0.03243938460946083,
      "965": -0.045722831040620804,
      "966": 0.07091379165649414,
      "967": -0.01589842326939106,
      "968": -0.015837259590625763,
      "969": 0.06836148351430893,
      "970": 0.03101937472820282,
      "971": -0.05403491482138634,
      "972": 0.061532847583293915,
      "973": -0.0007353721302933991,
      "974": -0.009314559400081635,
      "975": 0.044743821024894714,
      "976": 0.04276597499847412,
      "977": 0.0002620820887386799,
      "978": 0.037444423884153366,
      "979": -0.021455179899930954,
      "980": -0.03510694578289986,
      "981": 0.03413420915603638,
      "982": 0.0032481250818818808,
      "983": 0.03965860977768898,
      "984": -0.025326652452349663,
      "985": -0.019924048334360123,
      "986": -0.07640888541936874,
      "987": -0.028176767751574516,
      "988": -0.038456812500953674,
      "989": -0.04951522499322891,
      "990": -0.06394317001104355,
      "991": -0.0540287047624588
    }
  },
  "hiddenLayers": [
    {
      "inputMatrix": {
        "rows": 20,
        "columns": 31,
        "weights": {
          "0": -0.24118798971176147,
          "1": 1.010225772857666,
          "2": -0.3829011917114258,
          "3": -0.4323738217353821,
          "4": 0.2449185997247696,
          "5": 1.4189918041229248,
          "6": 2.2020342350006104,
          "7": 0.5745511651039124,
          "8": -2.330925941467285,
          "9": 1.1936054229736328,
          "10": 2.9910855293273926,
          "11": -1.8727102279663086,
          "12": -0.06215547025203705,
          "13": -1.1008671522140503,
          "14": 0.4708334505558014,
          "15": -2.258272409439087,
          "16": 0.41540902853012085,
          "17": 0.8470460772514343,
          "18": 1.170183539390564,
          "19": -0.42794767022132874,
          "20": 2.263792037963867,
          "21": 0.441886305809021,
          "22": -1.8575413227081299,
          "23": -0.12817278504371643,
          "24": 3.1614015102386475,
          "25": -0.20783668756484985,
          "26": -0.3923465311527252,
          "27": -0.47589173913002014,
          "28": 2.0116333961486816,
          "29": -0.35886526107788086,
          "30": 2.238677740097046,
          "31": -0.25246989727020264,
          "32": -0.5045589208602905,
          "33": 0.6685312986373901,
          "34": -1.1803703308105469,
          "35": 0.2692846655845642,
          "36": -1.2545733451843262,
          "37": -0.5350667238235474,
          "38": -1.7603915929794312,
          "39": 1.7509979009628296,
          "40": 2.3824870586395264,
          "41": -1.7474017143249512,
          "42": -1.7827829122543335,
          "43": -0.6847937107086182,
          "44": -1.3705743551254272,
          "45": 0.0851103812456131,
          "46": -0.8215787410736084,
          "47": 1.1003384590148926,
          "48": 2.6162850856781006,
          "49": 1.5022320747375488,
          "50": -0.5367933511734009,
          "51": 0.46955305337905884,
          "52": -0.057973217219114304,
          "53": 0.2890649735927582,
          "54": 0.9904239773750305,
          "55": 0.8854307532310486,
          "56": 1.937068223953247,
          "57": -0.08742676675319672,
          "58": 0.33406269550323486,
          "59": 0.7343832850456238,
          "60": 1.4487321376800537,
          "61": -1.4489238262176514,
          "62": -1.7109500169754028,
          "63": -2.3887245655059814,
          "64": 3.7040512561798096,
          "65": -0.3250698745250702,
          "66": 1.7574715614318848,
          "67": -2.1771984100341797,
          "68": -0.302608847618103,
          "69": -2.1222012042999268,
          "70": -0.1698063462972641,
          "71": 0.0368039645254612,
          "72": -0.7916405200958252,
          "73": 2.2300453186035156,
          "74": -0.7509734034538269,
          "75": -0.6782931685447693,
          "76": -1.8747584819793701,
          "77": 1.7928187847137451,
          "78": 0.1994977444410324,
          "79": 0.2796606719493866,
          "80": -0.11737917363643646,
          "81": -0.36305558681488037,
          "82": -0.5569092035293579,
          "83": -1.916745901107788,
          "84": 1.6611592769622803,
          "85": 0.5371913313865662,
          "86": -0.11249846965074539,
          "87": 0.5173279047012329,
          "88": 3.972721576690674,
          "89": 1.559546709060669,
          "90": -1.5700234174728394,
          "91": 1.517377495765686,
          "92": 0.15730194747447968,
          "93": 1.1772955656051636,
          "94": 1.8132599592208862,
          "95": -0.29543337225914,
          "96": 1.4672983884811401,
          "97": -0.3918585777282715,
          "98": -0.28477996587753296,
          "99": -0.20214121043682098,
          "100": -0.14420408010482788,
          "101": 0.8882353901863098,
          "102": 0.9236953854560852,
          "103": -0.430574506521225,
          "104": -0.16184675693511963,
          "105": 0.7021006345748901,
          "106": -0.5690664052963257,
          "107": 0.4550738036632538,
          "108": -0.5374659299850464,
          "109": 3.5210461616516113,
          "110": -1.4048335552215576,
          "111": 3.349233388900757,
          "112": -0.36619627475738525,
          "113": 2.1967830657958984,
          "114": 0.5980937480926514,
          "115": 0.4750231206417084,
          "116": -0.39622989296913147,
          "117": -0.41539087891578674,
          "118": 0.594066858291626,
          "119": 0.08990015834569931,
          "120": 0.2277393788099289,
          "121": 0.24740034341812134,
          "122": -0.0835256353020668,
          "123": -0.120831698179245,
          "124": -0.8816765546798706,
          "125": -0.604637861251831,
          "126": 1.8015722036361694,
          "127": 0.31452664732933044,
          "128": -0.0001726928458083421,
          "129": -0.012440679594874382,
          "130": -1.5609691143035889,
          "131": -2.17887806892395,
          "132": 0.9195560812950134,
          "133": 1.1119524240493774,
          "134": -2.1483142375946045,
          "135": -0.2779274880886078,
          "136": -1.001741647720337,
          "137": -0.4091816544532776,
          "138": -1.1786079406738281,
          "139": 1.3886796236038208,
          "140": 0.10270395129919052,
          "141": 0.9755185842514038,
          "142": -1.279815912246704,
          "143": -0.6564157009124756,
          "144": -3.086893081665039,
          "145": 0.6593631505966187,
          "146": 3.497941255569458,
          "147": -0.1711626648902893,
          "148": -1.0107204914093018,
          "149": 0.34989672899246216,
          "150": 1.4107165336608887,
          "151": 1.606726884841919,
          "152": -1.8575540781021118,
          "153": 1.7944037914276123,
          "154": -0.20285500586032867,
          "155": -0.28973129391670227,
          "156": 0.377230703830719,
          "157": -1.118716835975647,
          "158": -0.024013858288526535,
          "159": -0.4449581801891327,
          "160": 0.540791928768158,
          "161": 1.2830685377120972,
          "162": 0.334350049495697,
          "163": -1.658879280090332,
          "164": 0.16413778066635132,
          "165": 2.3780062198638916,
          "166": -2.2433207035064697,
          "167": 0.5637157559394836,
          "168": 0.10064546018838882,
          "169": 0.5278538465499878,
          "170": -0.9816054105758667,
          "171": -0.1328887641429901,
          "172": 1.320708155632019,
          "173": -0.520635724067688,
          "174": -0.5459893345832825,
          "175": 0.8609381914138794,
          "176": 0.2311076521873474,
          "177": -2.6627650260925293,
          "178": 0.8968626856803894,
          "179": 3.722567081451416,
          "180": 0.1934155374765396,
          "181": -1.2058320045471191,
          "182": -1.6832064390182495,
          "183": 2.0046300888061523,
          "184": -0.024320224300026894,
          "185": 2.4020230770111084,
          "186": 1.683510184288025,
          "187": 0.28270968794822693,
          "188": -0.1743263155221939,
          "189": -0.33636564016342163,
          "190": 0.47167062759399414,
          "191": 0.5192024111747742,
          "192": 2.1147921085357666,
          "193": 0.1219319999217987,
          "194": 0.15906359255313873,
          "195": 0.39000022411346436,
          "196": 1.966902732849121,
          "197": 0.13565978407859802,
          "198": 4.235167980194092,
          "199": 0.9537948966026306,
          "200": -1.0670239925384521,
          "201": 0.5872266888618469,
          "202": -1.9282385110855103,
          "203": 0.5939908027648926,
          "204": 0.24395395815372467,
          "205": -0.6033334732055664,
          "206": 1.7551528215408325,
          "207": 0.3264980614185333,
          "208": -0.0711260512471199,
          "209": -2.5557916164398193,
          "210": 0.3944135904312134,
          "211": -2.2841904163360596,
          "212": 0.041227757930755615,
          "213": -1.803800106048584,
          "214": 1.6199599504470825,
          "215": -0.649864912033081,
          "216": 1.155522346496582,
          "217": 1.3869911432266235,
          "218": 0.5040224194526672,
          "219": -2.066270589828491,
          "220": -0.029027163982391357,
          "221": -0.3797500729560852,
          "222": 1.4084020853042603,
          "223": 1.8759163618087769,
          "224": 2.0856945514678955,
          "225": -1.2097728252410889,
          "226": -1.44546639919281,
          "227": 1.311299443244934,
          "228": 0.20428621768951416,
          "229": 1.8966492414474487,
          "230": 2.7932422161102295,
          "231": 1.445265531539917,
          "232": -1.3330626487731934,
          "233": 0.04587837681174278,
          "234": -0.12888650596141815,
          "235": 1.1828607320785522,
          "236": 0.5523030161857605,
          "237": 0.5343436598777771,
          "238": 1.260741114616394,
          "239": 1.726439356803894,
          "240": -1.1569615602493286,
          "241": -1.284644365310669,
          "242": -0.1581292748451233,
          "243": -1.9688057899475098,
          "244": -3.5793442726135254,
          "245": -1.5285491943359375,
          "246": -3.5751068592071533,
          "247": 1.8302907943725586,
          "248": 0.1253969669342041,
          "249": -1.181731104850769,
          "250": -0.04280337691307068,
          "251": -1.6691067218780518,
          "252": -1.5780448913574219,
          "253": -0.0538380928337574,
          "254": -1.2179895639419556,
          "255": -1.55268132686615,
          "256": 1.127158761024475,
          "257": 0.6280128955841064,
          "258": -0.8313437104225159,
          "259": -0.8463277220726013,
          "260": -0.3001009523868561,
          "261": -0.11305130273103714,
          "262": -0.6917081475257874,
          "263": 0.4430144131183624,
          "264": 0.01552655827254057,
          "265": -0.6521623134613037,
          "266": -0.5030633807182312,
          "267": -0.8779885768890381,
          "268": -0.7321697473526001,
          "269": -0.29441457986831665,
          "270": 0.3569725751876831,
          "271": 0.22180525958538055,
          "272": -0.5204514861106873,
          "273": 1.3037323951721191,
          "274": 0.5158158540725708,
          "275": 0.0695706158876419,
          "276": -1.4550482034683228,
          "277": 2.127795934677124,
          "278": -1.7659868001937866,
          "279": -3.5074820518493652,
          "280": -1.4580386877059937,
          "281": 1.452256441116333,
          "282": -1.4165529012680054,
          "283": -1.1526051759719849,
          "284": -0.5480994582176208,
          "285": 2.022871494293213,
          "286": -1.0712473392486572,
          "287": 0.5058238506317139,
          "288": 0.49683907628059387,
          "289": 0.9908928275108337,
          "290": 1.1741541624069214,
          "291": 0.3433490991592407,
          "292": -0.9237148761749268,
          "293": -0.009575508534908295,
          "294": 1.474663257598877,
          "295": -1.410392165184021,
          "296": 0.7717348337173462,
          "297": -0.6660926938056946,
          "298": 0.7215152382850647,
          "299": -1.9799727201461792,
          "300": 0.6353136301040649,
          "301": -2.172910690307617,
          "302": -0.762945830821991,
          "303": 0.5465607643127441,
          "304": -1.767970323562622,
          "305": -0.18473181128501892,
          "306": 1.0442719459533691,
          "307": 2.8631200790405273,
          "308": 0.4647388160228729,
          "309": 0.739059329032898,
          "310": -1.0552679300308228,
          "311": -0.8152507543563843,
          "312": 0.30605199933052063,
          "313": -0.6118946075439453,
          "314": 0.5122141242027283,
          "315": -0.8639501333236694,
          "316": -0.37667712569236755,
          "317": 0.08158444613218307,
          "318": -1.761741042137146,
          "319": -3.0317442417144775,
          "320": -0.07123363763093948,
          "321": 0.030836500227451324,
          "322": -2.123853921890259,
          "323": 1.7210527658462524,
          "324": 3.069819450378418,
          "325": 0.6991737484931946,
          "326": -1.426000714302063,
          "327": 0.351092666387558,
          "328": -2.2646801471710205,
          "329": -1.424678921699524,
          "330": -1.5997320413589478,
          "331": 0.44521528482437134,
          "332": -0.3262864947319031,
          "333": 0.3164497911930084,
          "334": -0.044459808617830276,
          "335": -1.4552017450332642,
          "336": 1.0472687482833862,
          "337": -0.24170565605163574,
          "338": -1.1084413528442383,
          "339": 0.6274870038032532,
          "340": -0.9091353416442871,
          "341": 1.1483354568481445,
          "342": 1.4705551862716675,
          "343": -2.15682315826416,
          "344": 0.8022861480712891,
          "345": 1.4855937957763672,
          "346": -0.041433386504650116,
          "347": 0.5495485067367554,
          "348": 0.9062260985374451,
          "349": -1.4261893033981323,
          "350": 1.0130815505981445,
          "351": 1.3146839141845703,
          "352": -3.0818331241607666,
          "353": -0.7228943109512329,
          "354": -1.2561782598495483,
          "355": 1.3774560689926147,
          "356": -3.223196268081665,
          "357": 1.0688282251358032,
          "358": 1.4443022012710571,
          "359": 1.5896475315093994,
          "360": -0.9512364268302917,
          "361": -0.28961271047592163,
          "362": 0.5711116194725037,
          "363": -0.49525073170661926,
          "364": 2.1707119941711426,
          "365": 2.5048272609710693,
          "366": 1.0535080432891846,
          "367": -2.007154703140259,
          "368": -0.4300789535045624,
          "369": -0.07558611035346985,
          "370": -2.022845983505249,
          "371": 2.0776591300964355,
          "372": -0.5055007338523865,
          "373": 0.7144275903701782,
          "374": -0.19662079215049744,
          "375": 0.6846567988395691,
          "376": 0.2856292426586151,
          "377": -1.0020191669464111,
          "378": -1.4946883916854858,
          "379": 0.40993115305900574,
          "380": 1.1105787754058838,
          "381": 4.622729301452637,
          "382": 0.1951831579208374,
          "383": 1.3253910541534424,
          "384": 0.7826443314552307,
          "385": -0.8918822407722473,
          "386": -1.7982779741287231,
          "387": -2.3888957500457764,
          "388": 0.25979599356651306,
          "389": 1.117295503616333,
          "390": 1.7398678064346313,
          "391": 1.3147189617156982,
          "392": 1.9320578575134277,
          "393": -0.8109568357467651,
          "394": 1.7345623970031738,
          "395": 0.17266491055488586,
          "396": -0.2737460434436798,
          "397": 0.9357168674468994,
          "398": 0.4157203733921051,
          "399": -0.7893192768096924,
          "400": -0.18132422864437103,
          "401": 0.9681330323219299,
          "402": -0.9918939471244812,
          "403": 2.8371715545654297,
          "404": 2.7082669734954834,
          "405": -0.6435322761535645,
          "406": 1.1776986122131348,
          "407": 2.034614324569702,
          "408": 0.04725472256541252,
          "409": -2.52445650100708,
          "410": 1.167952299118042,
          "411": 0.31932830810546875,
          "412": 0.04725565016269684,
          "413": -1.4427871704101562,
          "414": -0.15844136476516724,
          "415": -1.0933585166931152,
          "416": -1.1842402219772339,
          "417": 0.7673489451408386,
          "418": -2.49129056930542,
          "419": 2.7429893016815186,
          "420": -0.48034363985061646,
          "421": 0.6666769981384277,
          "422": 0.922245442867279,
          "423": 0.7716948986053467,
          "424": 0.5396676063537598,
          "425": 0.31534165143966675,
          "426": 0.6798811554908752,
          "427": 0.8178992867469788,
          "428": 1.4342851638793945,
          "429": -1.116878628730774,
          "430": -0.5049197673797607,
          "431": 0.046514805406332016,
          "432": -0.8027911186218262,
          "433": -0.7571085691452026,
          "434": -1.4666861295700073,
          "435": -1.3372485637664795,
          "436": 0.34527406096458435,
          "437": 0.4350566565990448,
          "438": -0.1812276542186737,
          "439": -0.3793359100818634,
          "440": 0.5495957732200623,
          "441": -0.35150277614593506,
          "442": -1.2781873941421509,
          "443": -1.223841905593872,
          "444": 1.1889666318893433,
          "445": 1.2953431606292725,
          "446": -1.9297939538955688,
          "447": -0.29991674423217773,
          "448": 2.444446563720703,
          "449": -0.4193311929702759,
          "450": -0.6147469282150269,
          "451": 1.3434776067733765,
          "452": -1.0854116678237915,
          "453": -1.921318531036377,
          "454": -0.4004913866519928,
          "455": -0.5629556775093079,
          "456": -2.049617052078247,
          "457": 1.3098489046096802,
          "458": 1.0364089012145996,
          "459": -0.5210728645324707,
          "460": 0.01306860614567995,
          "461": -1.017408013343811,
          "462": 1.213918924331665,
          "463": 0.5802562236785889,
          "464": 0.8835366368293762,
          "465": 0.5463253855705261,
          "466": -0.13644109666347504,
          "467": 0.20948345959186554,
          "468": -1.59075129032135,
          "469": 1.7088996171951294,
          "470": 0.7469593286514282,
          "471": -0.2831335663795471,
          "472": -2.2564215660095215,
          "473": -0.20257961750030518,
          "474": 0.6752579808235168,
          "475": 1.1118003129959106,
          "476": -2.807795763015747,
          "477": -1.6488476991653442,
          "478": -2.504594087600708,
          "479": -1.239890694618225,
          "480": -2.006352186203003,
          "481": 1.2257648706436157,
          "482": -0.1350931078195572,
          "483": 1.8930671215057373,
          "484": -0.13801759481430054,
          "485": -1.5223630666732788,
          "486": -0.46135213971138,
          "487": -1.7168657779693604,
          "488": 1.9220224618911743,
          "489": 3.454906702041626,
          "490": 3.0087671279907227,
          "491": 0.20061805844306946,
          "492": 0.08104728907346725,
          "493": 0.1177639588713646,
          "494": -0.7319835424423218,
          "495": 0.9504597783088684,
          "496": 1.5581027269363403,
          "497": -0.1629687398672104,
          "498": -0.44374310970306396,
          "499": -0.4449423849582672,
          "500": -0.42630770802497864,
          "501": 2.2530980110168457,
          "502": 0.7177634239196777,
          "503": -1.3829187154769897,
          "504": 1.5891340970993042,
          "505": 1.8553998470306396,
          "506": -0.9717163443565369,
          "507": -0.697503387928009,
          "508": -0.09344197809696198,
          "509": -2.1386868953704834,
          "510": -1.5642378330230713,
          "511": -1.4109950065612793,
          "512": 1.5238795280456543,
          "513": -0.4562390446662903,
          "514": 0.4752994775772095,
          "515": 0.23436759412288666,
          "516": 1.0367116928100586,
          "517": 1.7906272411346436,
          "518": 0.7313913106918335,
          "519": -1.6240882873535156,
          "520": -0.083133764564991,
          "521": 1.3707780838012695,
          "522": -1.0022526979446411,
          "523": -0.6378709077835083,
          "524": 0.9784930944442749,
          "525": 1.1944934129714966,
          "526": -0.3588320016860962,
          "527": -0.33026233315467834,
          "528": 0.8001012206077576,
          "529": -0.4222254753112793,
          "530": -0.7366610765457153,
          "531": 0.20479422807693481,
          "532": -1.38454008102417,
          "533": 0.9953007698059082,
          "534": 1.4727061986923218,
          "535": -1.4331789016723633,
          "536": -0.9788514971733093,
          "537": 1.146043300628662,
          "538": -1.0153446197509766,
          "539": 1.7602877616882324,
          "540": 0.7780573964118958,
          "541": 0.2756657302379608,
          "542": 1.0711493492126465,
          "543": -0.7471732497215271,
          "544": 0.004056446719914675,
          "545": -1.1043697595596313,
          "546": -0.7990668416023254,
          "547": 0.7910028100013733,
          "548": -1.7890625,
          "549": -1.832581877708435,
          "550": 0.054588671773672104,
          "551": 1.122180700302124,
          "552": -1.2464313507080078,
          "553": 0.7041429281234741,
          "554": -2.541722297668457,
          "555": 1.4509297609329224,
          "556": 0.20354558527469635,
          "557": -0.7481397390365601,
          "558": 0.6922168135643005,
          "559": -0.024520521983504295,
          "560": -0.5514569878578186,
          "561": 0.34259870648384094,
          "562": -0.07633525878190994,
          "563": 3.2935028076171875,
          "564": -2.237238645553589,
          "565": -2.200378894805908,
          "566": 0.3843487501144409,
          "567": 1.714778184890747,
          "568": 0.011832847259938717,
          "569": -1.4552099704742432,
          "570": -0.38008755445480347,
          "571": -2.3883416652679443,
          "572": -2.5106518268585205,
          "573": 0.17240962386131287,
          "574": 2.229285955429077,
          "575": -1.7409451007843018,
          "576": 0.7795709371566772,
          "577": 0.8850787281990051,
          "578": -1.990707278251648,
          "579": 1.7251938581466675,
          "580": -0.3334965407848358,
          "581": 0.5840123891830444,
          "582": 1.556821584701538,
          "583": 3.6041676998138428,
          "584": -1.0150505304336548,
          "585": 0.4281086027622223,
          "586": -0.8482558727264404,
          "587": -0.2805674970149994,
          "588": 0.5642534494400024,
          "589": 1.5684707164764404,
          "590": 1.3136470317840576,
          "591": -0.9940901398658752,
          "592": 2.1846046447753906,
          "593": 0.46895110607147217,
          "594": 1.8693182468414307,
          "595": -1.95408296585083,
          "596": 0.28023862838745117,
          "597": 1.2229666709899902,
          "598": 1.192381501197815,
          "599": -1.7130743265151978,
          "600": -0.7045391798019409,
          "601": 1.5220235586166382,
          "602": -0.16532492637634277,
          "603": -0.63020920753479,
          "604": -1.073256492614746,
          "605": 2.4008047580718994,
          "606": -2.6542317867279053,
          "607": 1.2356812953948975,
          "608": 1.158686876296997,
          "609": 0.38146865367889404,
          "610": 2.0793111324310303,
          "611": 1.5901116132736206,
          "612": -1.203892707824707,
          "613": -0.011381381191313267,
          "614": 2.1563239097595215,
          "615": -0.7254216074943542,
          "616": -0.20061761140823364,
          "617": -1.084547519683838,
          "618": -0.47013530135154724,
          "619": 0.4237622916698456
        }
      },
      "inputHidden": {
        "rows": 20,
        "columns": 20,
        "weights": {
          "0": 2.1040260791778564,
          "1": 1.370160460472107,
          "2": 0.3800627589225769,
          "3": -2.340855360031128,
          "4": 0.24617478251457214,
          "5": 0.058631591498851776,
          "6": -1.2426550388336182,
          "7": -0.9210721850395203,
          "8": 2.2327768802642822,
          "9": -0.2947820723056793,
          "10": -0.4401906132698059,
          "11": 0.969177782535553,
          "12": -2.782172679901123,
          "13": -1.1228256225585938,
          "14": 1.109542727470398,
          "15": -2.7179465293884277,
          "16": -0.37895262241363525,
          "17": 0.24404145777225494,
          "18": 1.9754252433776855,
          "19": -2.2996208667755127,
          "20": 3.3216187953948975,
          "21": 0.7044995427131653,
          "22": -1.4434888362884521,
          "23": 4.93440055847168,
          "24": -1.935694694519043,
          "25": 1.8827528953552246,
          "26": -1.4292572736740112,
          "27": 0.6347769498825073,
          "28": 5.68892240524292,
          "29": 0.9324523210525513,
          "30": -0.4203643798828125,
          "31": -0.11656101793050766,
          "32": -0.39023953676223755,
          "33": 5.914364337921143,
          "34": -2.1213550567626953,
          "35": -0.8098039031028748,
          "36": 2.9849653244018555,
          "37": 2.652597427368164,
          "38": 0.2992301285266876,
          "39": -4.905059814453125,
          "40": 1.4119000434875488,
          "41": 2.8837921619415283,
          "42": -1.0199475288391113,
          "43": -1.5160326957702637,
          "44": 2.4593312740325928,
          "45": -0.6021617650985718,
          "46": 0.986946702003479,
          "47": -0.740545928478241,
          "48": 0.9430125951766968,
          "49": 0.17638584971427917,
          "50": 1.667396068572998,
          "51": 1.8909268379211426,
          "52": 1.7956838607788086,
          "53": 0.6304461359977722,
          "54": -2.1581039428710938,
          "55": -0.9508904814720154,
          "56": 0.09762883931398392,
          "57": -1.1663587093353271,
          "58": 0.29459184408187866,
          "59": 2.0771446228027344,
          "60": 0.8398449420928955,
          "61": 0.22702357172966003,
          "62": -6.361776351928711,
          "63": 2.4493682384490967,
          "64": 2.836635112762451,
          "65": -2.565293073654175,
          "66": 3.751373291015625,
          "67": -0.3481607735157013,
          "68": 0.19810277223587036,
          "69": -2.1181800365448,
          "70": 1.4534251689910889,
          "71": 1.2022031545639038,
          "72": 2.8153817653656006,
          "73": -1.7911264896392822,
          "74": -0.7523149847984314,
          "75": 1.6123656034469604,
          "76": -3.392552137374878,
          "77": 0.7194827795028687,
          "78": -1.4804095029830933,
          "79": 2.637840986251831,
          "80": 0.9537185430526733,
          "81": 0.5950053930282593,
          "82": -1.7587521076202393,
          "83": 1.750481128692627,
          "84": 0.8345827460289001,
          "85": 2.308107852935791,
          "86": -2.9437122344970703,
          "87": -3.0576059818267822,
          "88": -0.4296061098575592,
          "89": -1.8943380117416382,
          "90": -2.8734304904937744,
          "91": 0.18142129480838776,
          "92": 1.4086508750915527,
          "93": 0.8292466998100281,
          "94": 3.6628570556640625,
          "95": -2.4312069416046143,
          "96": -1.2871451377868652,
          "97": 3.3658106327056885,
          "98": 2.255200147628784,
          "99": 3.126732587814331,
          "100": 2.774056911468506,
          "101": 0.8784434199333191,
          "102": 0.155556321144104,
          "103": -2.272832155227661,
          "104": -4.237807750701904,
          "105": 1.0254911184310913,
          "106": 0.5391777753829956,
          "107": 1.4631482362747192,
          "108": 3.344341278076172,
          "109": -0.12693844735622406,
          "110": 2.1388955116271973,
          "111": -2.1874842643737793,
          "112": -0.9966885447502136,
          "113": -3.7196521759033203,
          "114": -4.17496919631958,
          "115": -3.2326526641845703,
          "116": 2.2407350540161133,
          "117": -1.2504947185516357,
          "118": 3.3028640747070312,
          "119": -2.4774487018585205,
          "120": 0.009861123748123646,
          "121": 1.7786200046539307,
          "122": 2.0257718563079834,
          "123": -1.4486421346664429,
          "124": 0.2270343005657196,
          "125": -2.9849889278411865,
          "126": 1.8114430904388428,
          "127": 1.1375586986541748,
          "128": 2.4079174995422363,
          "129": 2.770314931869507,
          "130": 3.03873872756958,
          "131": 1.3906837701797485,
          "132": -1.748020052909851,
          "133": -1.3412184715270996,
          "134": -1.4144165515899658,
          "135": 1.7745980024337769,
          "136": -2.046100378036499,
          "137": -0.4496142566204071,
          "138": -2.1333940029144287,
          "139": -0.889176070690155,
          "140": 0.36526310443878174,
          "141": 1.5905907154083252,
          "142": -1.2531908750534058,
          "143": -2.2536871433258057,
          "144": 1.6061580181121826,
          "145": -0.6294203400611877,
          "146": -0.07032637298107147,
          "147": -3.394106388092041,
          "148": 0.9389128684997559,
          "149": -0.182697594165802,
          "150": -0.9097490906715393,
          "151": -0.8724895119667053,
          "152": 2.9495198726654053,
          "153": -1.1202490329742432,
          "154": 1.269039273262024,
          "155": -1.522700548171997,
          "156": -0.8533032536506653,
          "157": -0.25080448389053345,
          "158": 0.9145095348358154,
          "159": 0.5802658796310425,
          "160": 1.1969895362854004,
          "161": 3.6660513877868652,
          "162": 1.875545859336853,
          "163": -1.982825517654419,
          "164": -4.386232852935791,
          "165": 0.4135250151157379,
          "166": 2.0754575729370117,
          "167": 0.4784136414527893,
          "168": 2.038332462310791,
          "169": 5.431601524353027,
          "170": -0.11657945811748505,
          "171": 3.5730249881744385,
          "172": -1.5191168785095215,
          "173": 1.5251519680023193,
          "174": -1.0855811834335327,
          "175": -3.3570759296417236,
          "176": -0.6948115825653076,
          "177": 0.299528032541275,
          "178": 0.8941459655761719,
          "179": -0.05542336776852608,
          "180": 0.7406837940216064,
          "181": 0.062475353479385376,
          "182": 2.6767725944519043,
          "183": -0.16749589145183563,
          "184": 0.30482879281044006,
          "185": -0.32483258843421936,
          "186": 0.0957898423075676,
          "187": 2.1477460861206055,
          "188": 1.5989216566085815,
          "189": -1.3290153741836548,
          "190": -0.8658093810081482,
          "191": -1.3441154956817627,
          "192": -0.07345140725374222,
          "193": 1.6319538354873657,
          "194": 1.202406406402588,
          "195": 1.2279930114746094,
          "196": 1.5584437847137451,
          "197": -1.1494615077972412,
          "198": -2.3613224029541016,
          "199": 0.08153505623340607,
          "200": -1.7377324104309082,
          "201": -1.1195694208145142,
          "202": 1.346856951713562,
          "203": 0.25339391827583313,
          "204": -4.614830017089844,
          "205": -2.107297658920288,
          "206": 0.6444157958030701,
          "207": 1.334884762763977,
          "208": 1.3565407991409302,
          "209": 4.258250713348389,
          "210": 0.11905382573604584,
          "211": -0.33400243520736694,
          "212": -0.13289567828178406,
          "213": 0.8360281586647034,
          "214": 3.4453117847442627,
          "215": -0.8211134076118469,
          "216": 1.4400625228881836,
          "217": 1.2759478092193604,
          "218": 0.10474899411201477,
          "219": -0.5612763166427612,
          "220": -3.131195545196533,
          "221": -2.9812684059143066,
          "222": -1.0699846744537354,
          "223": -1.9485644102096558,
          "224": -0.9694319367408752,
          "225": -0.03699469566345215,
          "226": 4.152509689331055,
          "227": 2.9352433681488037,
          "228": 1.6387590169906616,
          "229": -0.5178861021995544,
          "230": -3.643308162689209,
          "231": -3.3561813831329346,
          "232": -0.16950266063213348,
          "233": -0.5673031806945801,
          "234": 1.2194408178329468,
          "235": -0.6225972175598145,
          "236": -1.5208708047866821,
          "237": 2.125068187713623,
          "238": -0.28974926471710205,
          "239": 1.0268501043319702,
          "240": -0.774616539478302,
          "241": 0.17176556587219238,
          "242": -3.039149284362793,
          "243": -0.8920613527297974,
          "244": 0.14146946370601654,
          "245": -0.49370908737182617,
          "246": 1.7284349203109741,
          "247": 0.4283505380153656,
          "248": 1.4971287250518799,
          "249": 0.9543301463127136,
          "250": 0.4352305829524994,
          "251": -2.582273006439209,
          "252": 2.2135093212127686,
          "253": 0.45922642946243286,
          "254": -0.2043178528547287,
          "255": -2.0228657722473145,
          "256": 1.9944082498550415,
          "257": -0.15908288955688477,
          "258": 2.5244741439819336,
          "259": -4.899693965911865,
          "260": 0.19232980906963348,
          "261": -0.18300266563892365,
          "262": 0.5807185769081116,
          "263": 0.7430212497711182,
          "264": 1.946825623512268,
          "265": -1.6665266752243042,
          "266": -1.4754890203475952,
          "267": -1.015053391456604,
          "268": 0.5344144701957703,
          "269": 2.549665927886963,
          "270": -0.8591455817222595,
          "271": 1.0903418064117432,
          "272": -0.45728030800819397,
          "273": -0.2989029884338379,
          "274": -3.914728879928589,
          "275": 0.34443870186805725,
          "276": 0.44449761509895325,
          "277": -2.120722532272339,
          "278": 0.10583938658237457,
          "279": 1.284816861152649,
          "280": -1.6274325847625732,
          "281": -1.1378419399261475,
          "282": 1.504745364189148,
          "283": -0.7589194178581238,
          "284": -1.6014317274093628,
          "285": 1.3907362222671509,
          "286": -0.1332138627767563,
          "287": -0.6532177329063416,
          "288": 0.4802986681461334,
          "289": 0.7412636280059814,
          "290": -5.2161545753479,
          "291": -4.631418704986572,
          "292": -2.6826839447021484,
          "293": -1.0648634433746338,
          "294": 2.81019926071167,
          "295": 1.026462435722351,
          "296": 3.0269129276275635,
          "297": 1.4534566402435303,
          "298": -0.8189942240715027,
          "299": -0.753108024597168,
          "300": -1.9207868576049805,
          "301": -2.3954482078552246,
          "302": 4.0788092613220215,
          "303": 3.0900719165802,
          "304": -1.0768096446990967,
          "305": 1.9973962306976318,
          "306": -2.302841901779175,
          "307": -2.1051292419433594,
          "308": -0.6671168208122253,
          "309": 2.211411476135254,
          "310": 2.2966129779815674,
          "311": 0.5186870098114014,
          "312": 3.17094349861145,
          "313": 1.3819057941436768,
          "314": -1.801682710647583,
          "315": 0.15914003551006317,
          "316": 0.11543427407741547,
          "317": -1.6429201364517212,
          "318": -1.1142032146453857,
          "319": -0.3894772231578827,
          "320": 0.49127674102783203,
          "321": -2.2126500606536865,
          "322": -1.146804928779602,
          "323": 0.31647685170173645,
          "324": 1.0017716884613037,
          "325": 0.7332021594047546,
          "326": 0.09618771076202393,
          "327": 1.0210988521575928,
          "328": 1.1350452899932861,
          "329": -1.3649779558181763,
          "330": 1.1141917705535889,
          "331": 0.14597190916538239,
          "332": -0.762376070022583,
          "333": 2.5634591579437256,
          "334": -0.4984305500984192,
          "335": -0.2548557221889496,
          "336": -0.3280218839645386,
          "337": -0.024435486644506454,
          "338": 0.274383008480072,
          "339": -0.97652268409729,
          "340": -4.051719665527344,
          "341": 1.6287204027175903,
          "342": 2.234487771987915,
          "343": 0.5112403035163879,
          "344": -1.6393709182739258,
          "345": -1.6094781160354614,
          "346": -0.009336808696389198,
          "347": 0.1163133755326271,
          "348": 1.7666876316070557,
          "349": 1.5660148859024048,
          "350": -0.9863633513450623,
          "351": 1.3077975511550903,
          "352": -1.816901683807373,
          "353": 1.673893928527832,
          "354": 3.1532704830169678,
          "355": -0.8996046185493469,
          "356": -2.176008462905884,
          "357": 3.0196776390075684,
          "358": -0.08971571177244186,
          "359": 0.8571506142616272,
          "360": 2.4322471618652344,
          "361": 2.484262704849243,
          "362": 2.3902926445007324,
          "363": -2.2095587253570557,
          "364": -1.083686113357544,
          "365": -1.1518675088882446,
          "366": -2.545238494873047,
          "367": 2.6460230350494385,
          "368": 0.20384542644023895,
          "369": 0.9963565468788147,
          "370": -0.007997637614607811,
          "371": 0.45951807498931885,
          "372": 0.3989129960536957,
          "373": -0.5797067284584045,
          "374": 0.010032318532466888,
          "375": -0.03266181796789169,
          "376": -1.1114357709884644,
          "377": 2.7934513092041016,
          "378": 0.1818273663520813,
          "379": 1.9103666543960571,
          "380": 0.08255347609519958,
          "381": 3.3225183486938477,
          "382": 0.2695225477218628,
          "383": -0.97865891456604,
          "384": -2.774792432785034,
          "385": 1.809975504875183,
          "386": -1.2412019968032837,
          "387": 0.6078554391860962,
          "388": 1.7892117500305176,
          "389": -0.6626531481742859,
          "390": 0.04715098813176155,
          "391": 2.0760183334350586,
          "392": 2.470060348510742,
          "393": 2.2451367378234863,
          "394": -1.293935775756836,
          "395": -0.9612532258033752,
          "396": -1.7328962087631226,
          "397": -0.7001202702522278,
          "398": 5.156911849975586,
          "399": 1.1592185497283936
        }
      },
      "inputBias": {
        "rows": 20,
        "columns": 1,
        "weights": {
          "0": -1.522713303565979,
          "1": -0.860092282295227,
          "2": 1.392789602279663,
          "3": -0.33106479048728943,
          "4": 0.8756285309791565,
          "5": -0.6231240034103394,
          "6": -0.3881693184375763,
          "7": -0.6016159653663635,
          "8": -1.9516655206680298,
          "9": -0.918080747127533,
          "10": 1.1939674615859985,
          "11": -0.8835442662239075,
          "12": -0.4150823950767517,
          "13": -1.561448574066162,
          "14": -1.3016616106033325,
          "15": 0.9107513427734375,
          "16": -0.4640507102012634,
          "17": -0.9921422600746155,
          "18": 0.6328064203262329,
          "19": -0.9619818925857544
        }
      },
      "forgetMatrix": {
        "rows": 20,
        "columns": 31,
        "weights": {
          "0": 0.06717915087938309,
          "1": -1.2323428392410278,
          "2": -0.6332799196243286,
          "3": -2.1591711044311523,
          "4": 0.9784906506538391,
          "5": -0.8003642559051514,
          "6": 0.8087450861930847,
          "7": 0.1395256519317627,
          "8": -2.01615047454834,
          "9": -2.427104949951172,
          "10": 1.267166256904602,
          "11": -0.4168565571308136,
          "12": -0.4190121591091156,
          "13": 0.3035421669483185,
          "14": 0.2837934195995331,
          "15": 0.5028783082962036,
          "16": -2.1423850059509277,
          "17": 1.024393081665039,
          "18": -1.463376760482788,
          "19": 0.22697699069976807,
          "20": -1.0144823789596558,
          "21": -0.9765790700912476,
          "22": -1.849013328552246,
          "23": 1.154440999031067,
          "24": 1.4545823335647583,
          "25": -0.9911372661590576,
          "26": -0.42895033955574036,
          "27": -1.2339056730270386,
          "28": 0.6582710146903992,
          "29": -0.8388326168060303,
          "30": 0.3021981418132782,
          "31": -0.8925464749336243,
          "32": -0.5810270309448242,
          "33": 0.023629670962691307,
          "34": 1.2617270946502686,
          "35": 0.7825197577476501,
          "36": 1.2192407846450806,
          "37": -0.5862489342689514,
          "38": -1.2103745937347412,
          "39": -1.710232138633728,
          "40": 0.7070872187614441,
          "41": 1.8954986333847046,
          "42": -1.7225399017333984,
          "43": -1.067324161529541,
          "44": -2.0091123580932617,
          "45": -1.4761110544204712,
          "46": -0.746589720249176,
          "47": 0.9525442123413086,
          "48": 1.7121281623840332,
          "49": 1.1604458093643188,
          "50": -0.845110297203064,
          "51": -0.4689253270626068,
          "52": 1.800050973892212,
          "53": 0.8041515946388245,
          "54": 0.0030254058074206114,
          "55": 2.1507952213287354,
          "56": 1.0121800899505615,
          "57": -1.2967933416366577,
          "58": 3.2010080814361572,
          "59": -0.4212762415409088,
          "60": -0.23165428638458252,
          "61": 1.755353331565857,
          "62": 0.1805144101381302,
          "63": -0.5709336996078491,
          "64": -1.3176249265670776,
          "65": 0.29064351320266724,
          "66": 1.043445110321045,
          "67": 0.03982183709740639,
          "68": 0.5253650546073914,
          "69": 0.7117165327072144,
          "70": -0.6577813625335693,
          "71": -2.989928960800171,
          "72": -0.08729328215122223,
          "73": -0.4119358956813812,
          "74": -0.8091234564781189,
          "75": 0.8381005525588989,
          "76": -0.6288090348243713,
          "77": 1.0052748918533325,
          "78": -0.6041544079780579,
          "79": -0.21923545002937317,
          "80": -0.407480925321579,
          "81": -0.0808747410774231,
          "82": -0.08111264556646347,
          "83": 0.09145883470773697,
          "84": -0.42743614315986633,
          "85": 0.43912598490715027,
          "86": 0.08074364811182022,
          "87": -2.2069623470306396,
          "88": -0.31861501932144165,
          "89": 0.12144375592470169,
          "90": 0.14857269823551178,
          "91": -3.5796549320220947,
          "92": 1.319917917251587,
          "93": 0.029159821569919586,
          "94": 3.165224075317383,
          "95": 1.0449122190475464,
          "96": 1.2446898221969604,
          "97": 0.25686779618263245,
          "98": 1.9036645889282227,
          "99": 0.9655346870422363,
          "100": 3.4168803691864014,
          "101": -0.9179922938346863,
          "102": -0.7165147066116333,
          "103": -0.30172041058540344,
          "104": 0.4634510576725006,
          "105": 1.107548713684082,
          "106": 0.797070324420929,
          "107": -0.08588497340679169,
          "108": -2.0827455520629883,
          "109": -0.5763768553733826,
          "110": -1.0859266519546509,
          "111": 0.45508497953414917,
          "112": 3.723778009414673,
          "113": 1.5996813774108887,
          "114": 0.11139007657766342,
          "115": 1.7366982698440552,
          "116": -1.3390882015228271,
          "117": 0.9466732740402222,
          "118": 0.5433807373046875,
          "119": 0.18059282004833221,
          "120": -0.06793177127838135,
          "121": 0.8954026103019714,
          "122": 1.120895266532898,
          "123": 0.3155149817466736,
          "124": 1.1189677715301514,
          "125": 1.4526240825653076,
          "126": -0.8311727643013,
          "127": 0.16606412827968597,
          "128": 1.4745367765426636,
          "129": 1.5219306945800781,
          "130": 1.4391424655914307,
          "131": 2.007617235183716,
          "132": -1.4487203359603882,
          "133": -2.707580327987671,
          "134": 1.9791193008422852,
          "135": 0.026306038722395897,
          "136": 4.914510726928711,
          "137": 2.475308418273926,
          "138": 0.8191648721694946,
          "139": 0.8108701109886169,
          "140": 1.0076978206634521,
          "141": -1.9442685842514038,
          "142": 0.5699360370635986,
          "143": 0.7819325923919678,
          "144": 2.369028091430664,
          "145": -0.08132604509592056,
          "146": -1.9950034618377686,
          "147": -1.3041019439697266,
          "148": 1.4266116619110107,
          "149": -0.7711718082427979,
          "150": -1.291756272315979,
          "151": 0.13184817135334015,
          "152": -0.20259609818458557,
          "153": -0.47376665472984314,
          "154": 1.3117132186889648,
          "155": 1.3445234298706055,
          "156": 0.8387126326560974,
          "157": -0.6813302040100098,
          "158": 0.4438759684562683,
          "159": 0.03301730006933212,
          "160": -1.4735206365585327,
          "161": 0.851306140422821,
          "162": 2.0349462032318115,
          "163": -0.35776984691619873,
          "164": 0.3386494517326355,
          "165": 0.08551083505153656,
          "166": -1.2993394136428833,
          "167": 2.623267650604248,
          "168": 2.3433151245117188,
          "169": -0.18807439506053925,
          "170": 1.3856323957443237,
          "171": 0.7889269590377808,
          "172": 0.051220495253801346,
          "173": 1.5783947706222534,
          "174": -0.37321358919143677,
          "175": 1.7418015003204346,
          "176": -0.0034671230241656303,
          "177": 1.5470694303512573,
          "178": -0.19700589776039124,
          "179": -2.7589848041534424,
          "180": -0.3491923213005066,
          "181": -0.5100010633468628,
          "182": -2.2653141021728516,
          "183": -0.9918738603591919,
          "184": -1.701820969581604,
          "185": -0.04889529570937157,
          "186": -1.6119574308395386,
          "187": -1.1167876720428467,
          "188": 0.31818726658821106,
          "189": 0.5502171516418457,
          "190": 0.4791368246078491,
          "191": -3.3718478679656982,
          "192": 0.5449422001838684,
          "193": 0.18845562636852264,
          "194": -1.0419034957885742,
          "195": 0.41772663593292236,
          "196": 1.7706525325775146,
          "197": -0.3102272152900696,
          "198": -1.452385425567627,
          "199": -0.7385463118553162,
          "200": -1.765702247619629,
          "201": 1.3790785074234009,
          "202": -0.7840743064880371,
          "203": 2.962799072265625,
          "204": 1.2481389045715332,
          "205": -0.9759014248847961,
          "206": -0.229145348072052,
          "207": -2.448698043823242,
          "208": 0.37653449177742004,
          "209": 1.110123634338379,
          "210": -0.8379376530647278,
          "211": -1.1102925539016724,
          "212": 1.5213381052017212,
          "213": -0.049034714698791504,
          "214": -0.16686759889125824,
          "215": 0.9008238911628723,
          "216": 0.8381675481796265,
          "217": -0.8285241723060608,
          "218": -2.499272346496582,
          "219": 0.6550688147544861,
          "220": -1.631326675415039,
          "221": 0.8774542808532715,
          "222": -0.7794288992881775,
          "223": 1.635180950164795,
          "224": -0.6620267629623413,
          "225": -0.009159009903669357,
          "226": -0.0866180807352066,
          "227": 1.011557698249817,
          "228": -0.47602149844169617,
          "229": -2.7343976497650146,
          "230": 0.23226577043533325,
          "231": 1.3084579706192017,
          "232": -0.3070426881313324,
          "233": -0.4498422145843506,
          "234": 1.866890549659729,
          "235": -0.7089743614196777,
          "236": -1.4727721214294434,
          "237": -1.166053295135498,
          "238": -1.2171921730041504,
          "239": -1.9689921140670776,
          "240": 0.2962123155593872,
          "241": 1.0266016721725464,
          "242": -1.2132402658462524,
          "243": 1.4481762647628784,
          "244": -2.018146276473999,
          "245": 1.3487740755081177,
          "246": 0.6996476650238037,
          "247": 0.5500818490982056,
          "248": -1.908067226409912,
          "249": -0.12792710959911346,
          "250": 0.20168930292129517,
          "251": -0.13115940988063812,
          "252": -0.25090932846069336,
          "253": -1.9120010137557983,
          "254": -0.5716344118118286,
          "255": 1.9286540746688843,
          "256": 0.208059161901474,
          "257": -0.10563195496797562,
          "258": -0.3702985346317291,
          "259": 2.2605643272399902,
          "260": 1.367680311203003,
          "261": 3.8188397884368896,
          "262": 0.9340481162071228,
          "263": 2.102264165878296,
          "264": -3.5559370517730713,
          "265": 3.1653542518615723,
          "266": -2.073270559310913,
          "267": 1.452667236328125,
          "268": -1.481149435043335,
          "269": -0.3963840901851654,
          "270": -0.08156348764896393,
          "271": -0.7410389184951782,
          "272": -2.061035633087158,
          "273": -1.5973575115203857,
          "274": 0.09714619815349579,
          "275": -1.564675211906433,
          "276": -0.042464133352041245,
          "277": 1.305111050605774,
          "278": 0.6206737756729126,
          "279": 1.4055973291397095,
          "280": 1.210087537765503,
          "281": 0.099662184715271,
          "282": 1.8090741634368896,
          "283": -0.4913932979106903,
          "284": -0.4566834270954132,
          "285": 0.23025481402873993,
          "286": -0.6882386207580566,
          "287": 1.0271008014678955,
          "288": -0.8384562134742737,
          "289": 0.6748802065849304,
          "290": 3.164926767349243,
          "291": 1.2117772102355957,
          "292": -0.5460230708122253,
          "293": 0.5906429886817932,
          "294": 0.2598923444747925,
          "295": 1.4512875080108643,
          "296": -2.5080044269561768,
          "297": 0.794597327709198,
          "298": 0.3385452628135681,
          "299": 1.7199255228042603,
          "300": -1.007049798965454,
          "301": -0.1388777494430542,
          "302": -2.9223344326019287,
          "303": -2.3545751571655273,
          "304": -0.8599014282226562,
          "305": -0.5346308350563049,
          "306": 2.475245714187622,
          "307": 1.8273428678512573,
          "308": 0.3410884737968445,
          "309": -0.9004611968994141,
          "310": 1.3466625213623047,
          "311": -0.4784865975379944,
          "312": 0.8182579874992371,
          "313": 1.3260290622711182,
          "314": -1.409111499786377,
          "315": 0.006607871036976576,
          "316": -0.5962754487991333,
          "317": -0.00030073916423134506,
          "318": 0.515561580657959,
          "319": -1.116624116897583,
          "320": 0.44036051630973816,
          "321": 0.9723971486091614,
          "322": 1.284111499786377,
          "323": 1.2283177375793457,
          "324": -0.07960565388202667,
          "325": 1.8517218828201294,
          "326": 0.9913637042045593,
          "327": 0.38952842354774475,
          "328": 0.11354836076498032,
          "329": -0.32498040795326233,
          "330": -0.06607801467180252,
          "331": 0.2171541303396225,
          "332": 1.13210129737854,
          "333": -1.268218994140625,
          "334": -1.6667044162750244,
          "335": -1.4677234888076782,
          "336": 0.3024902641773224,
          "337": 2.464536666870117,
          "338": -2.1936964988708496,
          "339": 0.5804407596588135,
          "340": -2.064575672149658,
          "341": -1.071739673614502,
          "342": -0.1256481260061264,
          "343": -0.3002711534500122,
          "344": -3.070091962814331,
          "345": -0.7961537837982178,
          "346": 0.0361449159681797,
          "347": 2.2007980346679688,
          "348": -0.5245760679244995,
          "349": -1.8935966491699219,
          "350": -0.5771704316139221,
          "351": 2.1155941486358643,
          "352": -1.92690908908844,
          "353": 0.420337975025177,
          "354": 1.2657040357589722,
          "355": 0.9018941521644592,
          "356": -0.08308259397745132,
          "357": -1.3172736167907715,
          "358": 0.41583409905433655,
          "359": -1.4194899797439575,
          "360": -1.834174394607544,
          "361": 1.1872682571411133,
          "362": -2.3079280853271484,
          "363": -1.2974241971969604,
          "364": -0.1923694610595703,
          "365": 2.8156020641326904,
          "366": -0.44946467876434326,
          "367": 1.1749581098556519,
          "368": -1.547627568244934,
          "369": 0.3571872115135193,
          "370": 0.341675728559494,
          "371": 0.014084773138165474,
          "372": 2.128779172897339,
          "373": 0.7453299164772034,
          "374": -1.8242672681808472,
          "375": 1.1766529083251953,
          "376": 1.2864747047424316,
          "377": -2.3554553985595703,
          "378": -0.32908380031585693,
          "379": 0.8228617310523987,
          "380": 1.0315420627593994,
          "381": 0.187974750995636,
          "382": -0.7501893639564514,
          "383": 0.18884219229221344,
          "384": 2.751598596572876,
          "385": 1.4929466247558594,
          "386": 0.24770379066467285,
          "387": -0.44857218861579895,
          "388": 0.1541971117258072,
          "389": -0.9663553237915039,
          "390": -0.360454797744751,
          "391": 0.20214132964611053,
          "392": 1.7252084016799927,
          "393": -0.2789956033229828,
          "394": 1.1526834964752197,
          "395": -0.9355477094650269,
          "396": -1.852674126625061,
          "397": -0.25640928745269775,
          "398": -1.0880268812179565,
          "399": -2.9177024364471436,
          "400": 0.019616857171058655,
          "401": -0.22374406456947327,
          "402": -0.9594601988792419,
          "403": -2.02892804145813,
          "404": 0.6179406046867371,
          "405": 1.0059293508529663,
          "406": -0.28531861305236816,
          "407": -1.412156581878662,
          "408": -1.4192694425582886,
          "409": 0.2911345660686493,
          "410": 0.31862562894821167,
          "411": -0.07118961960077286,
          "412": 2.010972261428833,
          "413": 0.027716999873518944,
          "414": -0.034328363835811615,
          "415": -0.06884486228227615,
          "416": -0.5263425707817078,
          "417": -1.9008800983428955,
          "418": 1.1248860359191895,
          "419": -1.2145583629608154,
          "420": 1.0869419574737549,
          "421": -0.25754767656326294,
          "422": -0.46490344405174255,
          "423": -0.9194825291633606,
          "424": -1.9889788627624512,
          "425": 1.6629751920700073,
          "426": -1.6037501096725464,
          "427": -0.5859061479568481,
          "428": -0.5792498588562012,
          "429": 2.288048028945923,
          "430": -0.7116155624389648,
          "431": 0.5332021713256836,
          "432": 0.3291698694229126,
          "433": -0.664863646030426,
          "434": 0.6682477593421936,
          "435": 0.8479822278022766,
          "436": 1.2782455682754517,
          "437": 1.7267688512802124,
          "438": -0.22120358049869537,
          "439": 1.4045767784118652,
          "440": 0.5090224742889404,
          "441": -0.1238459125161171,
          "442": -0.7264087796211243,
          "443": -1.435418963432312,
          "444": -0.6933295726776123,
          "445": -1.531741976737976,
          "446": 0.3346673548221588,
          "447": 1.0309388637542725,
          "448": 0.31311750411987305,
          "449": -0.7699733376502991,
          "450": -0.1754893660545349,
          "451": -0.5427987575531006,
          "452": 0.3697289526462555,
          "453": 0.4337439239025116,
          "454": 0.5330424308776855,
          "455": 1.7790106534957886,
          "456": -0.6209467649459839,
          "457": -0.31861037015914917,
          "458": -0.3764139711856842,
          "459": 0.7889838814735413,
          "460": -0.5282390713691711,
          "461": 1.3483144044876099,
          "462": -1.651334285736084,
          "463": 1.4334925413131714,
          "464": 0.5817809104919434,
          "465": 0.3823876678943634,
          "466": -0.8649476766586304,
          "467": -2.287594795227051,
          "468": -0.8876573443412781,
          "469": -1.1793609857559204,
          "470": 1.769934892654419,
          "471": 2.010789394378662,
          "472": -0.7100748419761658,
          "473": 1.7737455368041992,
          "474": 1.4867000579833984,
          "475": -0.4504692554473877,
          "476": -1.1278146505355835,
          "477": 3.043004274368286,
          "478": 1.1434754133224487,
          "479": 1.7394691705703735,
          "480": -0.9460130929946899,
          "481": 0.3003225028514862,
          "482": 2.6687259674072266,
          "483": 1.4603867530822754,
          "484": 1.0778465270996094,
          "485": 2.697093963623047,
          "486": 2.5146024227142334,
          "487": -0.5275518894195557,
          "488": -0.964771568775177,
          "489": -0.0992051288485527,
          "490": -0.2971879541873932,
          "491": -2.365068197250366,
          "492": -2.2797679901123047,
          "493": 2.099710702896118,
          "494": -0.5489256381988525,
          "495": 0.41135337948799133,
          "496": 1.5565303564071655,
          "497": -1.4839454889297485,
          "498": 0.5530571937561035,
          "499": -2.838256359100342,
          "500": -1.1111195087432861,
          "501": 1.4853520393371582,
          "502": -0.3884538412094116,
          "503": -1.6191930770874023,
          "504": 1.8224759101867676,
          "505": 2.467353105545044,
          "506": -1.9616974592208862,
          "507": 0.2144608348608017,
          "508": 0.6697484850883484,
          "509": 0.7430323958396912,
          "510": 1.662283182144165,
          "511": -0.30725377798080444,
          "512": -0.43290096521377563,
          "513": 0.5709656476974487,
          "514": -0.49045678973197937,
          "515": -0.7759807109832764,
          "516": 1.362939715385437,
          "517": 0.7366980910301208,
          "518": 1.3148986101150513,
          "519": -1.0779287815093994,
          "520": -1.2502343654632568,
          "521": 0.17141938209533691,
          "522": 0.04415500909090042,
          "523": -0.21865658462047577,
          "524": -0.3420749008655548,
          "525": -0.6562744379043579,
          "526": -0.32981258630752563,
          "527": 1.0543404817581177,
          "528": 0.515874445438385,
          "529": 0.03707915544509888,
          "530": 1.2272424697875977,
          "531": 0.5648146867752075,
          "532": 0.1286766082048416,
          "533": -0.6640496850013733,
          "534": -0.30181971192359924,
          "535": -0.12893065810203552,
          "536": -1.113018274307251,
          "537": -0.6727319955825806,
          "538": 0.9606997966766357,
          "539": -1.0847041606903076,
          "540": -0.727408230304718,
          "541": 0.7167481184005737,
          "542": 0.3896791934967041,
          "543": -0.30510199069976807,
          "544": -0.15362957119941711,
          "545": -1.7177369594573975,
          "546": -1.164441704750061,
          "547": -2.4578161239624023,
          "548": 1.7956387996673584,
          "549": 1.4385852813720703,
          "550": 2.4671947956085205,
          "551": -2.043795585632324,
          "552": -0.919671893119812,
          "553": -2.0566046237945557,
          "554": 1.6690952777862549,
          "555": -2.2168118953704834,
          "556": -2.58193039894104,
          "557": 0.8245152831077576,
          "558": -1.3830593824386597,
          "559": -0.4185427725315094,
          "560": -0.21930040419101715,
          "561": -0.5053074955940247,
          "562": 0.23918092250823975,
          "563": -0.8318190574645996,
          "564": 1.1407032012939453,
          "565": 0.9334893822669983,
          "566": -1.6368365287780762,
          "567": -1.7383551597595215,
          "568": 1.1869679689407349,
          "569": 0.6236702799797058,
          "570": 0.5575441718101501,
          "571": 2.0127506256103516,
          "572": 2.019254446029663,
          "573": 2.0492379665374756,
          "574": -3.2212986946105957,
          "575": 1.0521422624588013,
          "576": -1.8245179653167725,
          "577": -0.6371153593063354,
          "578": -0.17296403646469116,
          "579": -1.2552812099456787,
          "580": -0.7182999849319458,
          "581": -0.02531924843788147,
          "582": -0.3430027663707733,
          "583": -1.6490310430526733,
          "584": -0.06996972113847733,
          "585": 0.612079918384552,
          "586": 0.8453792333602905,
          "587": -0.24746936559677124,
          "588": 2.074491262435913,
          "589": -2.61118483543396,
          "590": 0.5548274517059326,
          "591": 0.6316457986831665,
          "592": 1.2661168575286865,
          "593": 0.9441961646080017,
          "594": -2.91377329826355,
          "595": -0.04134201630949974,
          "596": 0.11868783831596375,
          "597": -1.5908722877502441,
          "598": -0.6101836562156677,
          "599": 0.03218751773238182,
          "600": 1.7481908798217773,
          "601": -1.6880896091461182,
          "602": 0.41601091623306274,
          "603": -0.43559667468070984,
          "604": 1.2358065843582153,
          "605": -0.88411545753479,
          "606": 0.8309553265571594,
          "607": -0.6785620450973511,
          "608": -1.3895528316497803,
          "609": -0.4738558232784271,
          "610": -2.305445671081543,
          "611": -0.49179011583328247,
          "612": -0.5078673958778381,
          "613": 0.4597991704940796,
          "614": -2.5422730445861816,
          "615": 1.8098164796829224,
          "616": -0.9177116751670837,
          "617": 0.6110242605209351,
          "618": 0.7339213490486145,
          "619": -0.3399263918399811
        }
      },
      "forgetHidden": {
        "rows": 20,
        "columns": 20,
        "weights": {
          "0": -1.0607048273086548,
          "1": 1.3346909284591675,
          "2": -2.9840943813323975,
          "3": -0.840749204158783,
          "4": 1.1542670726776123,
          "5": -0.4205282926559448,
          "6": 0.5115846395492554,
          "7": 1.1974949836730957,
          "8": -0.3032369315624237,
          "9": 1.1065058708190918,
          "10": -0.8870298266410828,
          "11": 1.5933061838150024,
          "12": -0.24336862564086914,
          "13": -0.18121293187141418,
          "14": 2.188155174255371,
          "15": 1.493788242340088,
          "16": -0.7098134160041809,
          "17": 0.8575662970542908,
          "18": -1.2158156633377075,
          "19": -0.07050760090351105,
          "20": 3.7109856605529785,
          "21": -1.255391240119934,
          "22": 2.2215771675109863,
          "23": 0.15311208367347717,
          "24": 1.3400651216506958,
          "25": 1.059239387512207,
          "26": 2.262073040008545,
          "27": 1.4282687902450562,
          "28": -0.28271159529685974,
          "29": -0.3933543860912323,
          "30": 1.3899309635162354,
          "31": -1.5619014501571655,
          "32": -2.7179291248321533,
          "33": 0.25751394033432007,
          "34": 2.5031421184539795,
          "35": 2.285763740539551,
          "36": 1.8931304216384888,
          "37": -1.9079468250274658,
          "38": 1.9795106649398804,
          "39": -4.79073429107666,
          "40": -0.9016621708869934,
          "41": -0.1066087856888771,
          "42": 3.2109391689300537,
          "43": 1.0630077123641968,
          "44": -1.8334550857543945,
          "45": -1.8824667930603027,
          "46": 0.2078218162059784,
          "47": -1.8876245021820068,
          "48": -1.2605258226394653,
          "49": 0.6178364157676697,
          "50": -0.61506187915802,
          "51": -1.1440846920013428,
          "52": -3.057394027709961,
          "53": 1.0466042757034302,
